{
  "learner": {
    "attributes": {
      "scikit_learn": "{\"_estimator_type\": \"classifier\"}"
    },
    "feature_names": [],
    "feature_types": [],
    "gradient_booster": {
      "model": {
        "cats": {
          "enc": [],
          "feature_segments": [],
          "sorted_idx": []
        },
        "gbtree_model_param": {
          "num_parallel_tree": "1",
          "num_trees": "1000"
        },
        "iteration_indptr": [
          0,
          1,
          2,
          3,
          4,
          5,
          6,
          7,
          8,
          9,
          10,
          11,
          12,
          13,
          14,
          15,
          16,
          17,
          18,
          19,
          20,
          21,
          22,
          23,
          24,
          25,
          26,
          27,
          28,
          29,
          30,
          31,
          32,
          33,
          34,
          35,
          36,
          37,
          38,
          39,
          40,
          41,
          42,
          43,
          44,
          45,
          46,
          47,
          48,
          49,
          50,
          51,
          52,
          53,
          54,
          55,
          56,
          57,
          58,
          59,
          60,
          61,
          62,
          63,
          64,
          65,
          66,
          67,
          68,
          69,
          70,
          71,
          72,
          73,
          74,
          75,
          76,
          77,
          78,
          79,
          80,
          81,
          82,
          83,
          84,
          85,
          86,
          87,
          88,
          89,
          90,
          91,
          92,
          93,
          94,
          95,
          96,
          97,
          98,
          99,
          100,
          101,
          102,
          103,
          104,
          105,
          106,
          107,
          108,
          109,
          110,
          111,
          112,
          113,
          114,
          115,
          116,
          117,
          118,
          119,
          120,
          121,
          122,
          123,
          124,
          125,
          126,
          127,
          128,
          129,
          130,
          131,
          132,
          133,
          134,
          135,
          136,
          137,
          138,
          139,
          140,
          141,
          142,
          143,
          144,
          145,
          146,
          147,
          148,
          149,
          150,
          151,
          152,
          153,
          154,
          155,
          156,
          157,
          158,
          159,
          160,
          161,
          162,
          163,
          164,
          165,
          166,
          167,
          168,
          169,
          170,
          171,
          172,
          173,
          174,
          175,
          176,
          177,
          178,
          179,
          180,
          181,
          182,
          183,
          184,
          185,
          186,
          187,
          188,
          189,
          190,
          191,
          192,
          193,
          194,
          195,
          196,
          197,
          198,
          199,
          200,
          201,
          202,
          203,
          204,
          205,
          206,
          207,
          208,
          209,
          210,
          211,
          212,
          213,
          214,
          215,
          216,
          217,
          218,
          219,
          220,
          221,
          222,
          223,
          224,
          225,
          226,
          227,
          228,
          229,
          230,
          231,
          232,
          233,
          234,
          235,
          236,
          237,
          238,
          239,
          240,
          241,
          242,
          243,
          244,
          245,
          246,
          247,
          248,
          249,
          250,
          251,
          252,
          253,
          254,
          255,
          256,
          257,
          258,
          259,
          260,
          261,
          262,
          263,
          264,
          265,
          266,
          267,
          268,
          269,
          270,
          271,
          272,
          273,
          274,
          275,
          276,
          277,
          278,
          279,
          280,
          281,
          282,
          283,
          284,
          285,
          286,
          287,
          288,
          289,
          290,
          291,
          292,
          293,
          294,
          295,
          296,
          297,
          298,
          299,
          300,
          301,
          302,
          303,
          304,
          305,
          306,
          307,
          308,
          309,
          310,
          311,
          312,
          313,
          314,
          315,
          316,
          317,
          318,
          319,
          320,
          321,
          322,
          323,
          324,
          325,
          326,
          327,
          328,
          329,
          330,
          331,
          332,
          333,
          334,
          335,
          336,
          337,
          338,
          339,
          340,
          341,
          342,
          343,
          344,
          345,
          346,
          347,
          348,
          349,
          350,
          351,
          352,
          353,
          354,
          355,
          356,
          357,
          358,
          359,
          360,
          361,
          362,
          363,
          364,
          365,
          366,
          367,
          368,
          369,
          370,
          371,
          372,
          373,
          374,
          375,
          376,
          377,
          378,
          379,
          380,
          381,
          382,
          383,
          384,
          385,
          386,
          387,
          388,
          389,
          390,
          391,
          392,
          393,
          394,
          395,
          396,
          397,
          398,
          399,
          400,
          401,
          402,
          403,
          404,
          405,
          406,
          407,
          408,
          409,
          410,
          411,
          412,
          413,
          414,
          415,
          416,
          417,
          418,
          419,
          420,
          421,
          422,
          423,
          424,
          425,
          426,
          427,
          428,
          429,
          430,
          431,
          432,
          433,
          434,
          435,
          436,
          437,
          438,
          439,
          440,
          441,
          442,
          443,
          444,
          445,
          446,
          447,
          448,
          449,
          450,
          451,
          452,
          453,
          454,
          455,
          456,
          457,
          458,
          459,
          460,
          461,
          462,
          463,
          464,
          465,
          466,
          467,
          468,
          469,
          470,
          471,
          472,
          473,
          474,
          475,
          476,
          477,
          478,
          479,
          480,
          481,
          482,
          483,
          484,
          485,
          486,
          487,
          488,
          489,
          490,
          491,
          492,
          493,
          494,
          495,
          496,
          497,
          498,
          499,
          500,
          501,
          502,
          503,
          504,
          505,
          506,
          507,
          508,
          509,
          510,
          511,
          512,
          513,
          514,
          515,
          516,
          517,
          518,
          519,
          520,
          521,
          522,
          523,
          524,
          525,
          526,
          527,
          528,
          529,
          530,
          531,
          532,
          533,
          534,
          535,
          536,
          537,
          538,
          539,
          540,
          541,
          542,
          543,
          544,
          545,
          546,
          547,
          548,
          549,
          550,
          551,
          552,
          553,
          554,
          555,
          556,
          557,
          558,
          559,
          560,
          561,
          562,
          563,
          564,
          565,
          566,
          567,
          568,
          569,
          570,
          571,
          572,
          573,
          574,
          575,
          576,
          577,
          578,
          579,
          580,
          581,
          582,
          583,
          584,
          585,
          586,
          587,
          588,
          589,
          590,
          591,
          592,
          593,
          594,
          595,
          596,
          597,
          598,
          599,
          600,
          601,
          602,
          603,
          604,
          605,
          606,
          607,
          608,
          609,
          610,
          611,
          612,
          613,
          614,
          615,
          616,
          617,
          618,
          619,
          620,
          621,
          622,
          623,
          624,
          625,
          626,
          627,
          628,
          629,
          630,
          631,
          632,
          633,
          634,
          635,
          636,
          637,
          638,
          639,
          640,
          641,
          642,
          643,
          644,
          645,
          646,
          647,
          648,
          649,
          650,
          651,
          652,
          653,
          654,
          655,
          656,
          657,
          658,
          659,
          660,
          661,
          662,
          663,
          664,
          665,
          666,
          667,
          668,
          669,
          670,
          671,
          672,
          673,
          674,
          675,
          676,
          677,
          678,
          679,
          680,
          681,
          682,
          683,
          684,
          685,
          686,
          687,
          688,
          689,
          690,
          691,
          692,
          693,
          694,
          695,
          696,
          697,
          698,
          699,
          700,
          701,
          702,
          703,
          704,
          705,
          706,
          707,
          708,
          709,
          710,
          711,
          712,
          713,
          714,
          715,
          716,
          717,
          718,
          719,
          720,
          721,
          722,
          723,
          724,
          725,
          726,
          727,
          728,
          729,
          730,
          731,
          732,
          733,
          734,
          735,
          736,
          737,
          738,
          739,
          740,
          741,
          742,
          743,
          744,
          745,
          746,
          747,
          748,
          749,
          750,
          751,
          752,
          753,
          754,
          755,
          756,
          757,
          758,
          759,
          760,
          761,
          762,
          763,
          764,
          765,
          766,
          767,
          768,
          769,
          770,
          771,
          772,
          773,
          774,
          775,
          776,
          777,
          778,
          779,
          780,
          781,
          782,
          783,
          784,
          785,
          786,
          787,
          788,
          789,
          790,
          791,
          792,
          793,
          794,
          795,
          796,
          797,
          798,
          799,
          800,
          801,
          802,
          803,
          804,
          805,
          806,
          807,
          808,
          809,
          810,
          811,
          812,
          813,
          814,
          815,
          816,
          817,
          818,
          819,
          820,
          821,
          822,
          823,
          824,
          825,
          826,
          827,
          828,
          829,
          830,
          831,
          832,
          833,
          834,
          835,
          836,
          837,
          838,
          839,
          840,
          841,
          842,
          843,
          844,
          845,
          846,
          847,
          848,
          849,
          850,
          851,
          852,
          853,
          854,
          855,
          856,
          857,
          858,
          859,
          860,
          861,
          862,
          863,
          864,
          865,
          866,
          867,
          868,
          869,
          870,
          871,
          872,
          873,
          874,
          875,
          876,
          877,
          878,
          879,
          880,
          881,
          882,
          883,
          884,
          885,
          886,
          887,
          888,
          889,
          890,
          891,
          892,
          893,
          894,
          895,
          896,
          897,
          898,
          899,
          900,
          901,
          902,
          903,
          904,
          905,
          906,
          907,
          908,
          909,
          910,
          911,
          912,
          913,
          914,
          915,
          916,
          917,
          918,
          919,
          920,
          921,
          922,
          923,
          924,
          925,
          926,
          927,
          928,
          929,
          930,
          931,
          932,
          933,
          934,
          935,
          936,
          937,
          938,
          939,
          940,
          941,
          942,
          943,
          944,
          945,
          946,
          947,
          948,
          949,
          950,
          951,
          952,
          953,
          954,
          955,
          956,
          957,
          958,
          959,
          960,
          961,
          962,
          963,
          964,
          965,
          966,
          967,
          968,
          969,
          970,
          971,
          972,
          973,
          974,
          975,
          976,
          977,
          978,
          979,
          980,
          981,
          982,
          983,
          984,
          985,
          986,
          987,
          988,
          989,
          990,
          991,
          992,
          993,
          994,
          995,
          996,
          997,
          998,
          999,
          1000
        ],
        "tree_info": [
          0,
          0,
          0,
          0,
          0,
          0,
          0,
          0,
          0,
          0,
          0,
          0,
          0,
          0,
          0,
          0,
          0,
          0,
          0,
          0,
          0,
          0,
          0,
          0,
          0,
          0,
          0,
          0,
          0,
          0,
          0,
          0,
          0,
          0,
          0,
          0,
          0,
          0,
          0,
          0,
          0,
          0,
          0,
          0,
          0,
          0,
          0,
          0,
          0,
          0,
          0,
          0,
          0,
          0,
          0,
          0,
          0,
          0,
          0,
          0,
          0,
          0,
          0,
          0,
          0,
          0,
          0,
          0,
          0,
          0,
          0,
          0,
          0,
          0,
          0,
          0,
          0,
          0,
          0,
          0,
          0,
          0,
          0,
          0,
          0,
          0,
          0,
          0,
          0,
          0,
          0,
          0,
          0,
          0,
          0,
          0,
          0,
          0,
          0,
          0,
          0,
          0,
          0,
          0,
          0,
          0,
          0,
          0,
          0,
          0,
          0,
          0,
          0,
          0,
          0,
          0,
          0,
          0,
          0,
          0,
          0,
          0,
          0,
          0,
          0,
          0,
          0,
          0,
          0,
          0,
          0,
          0,
          0,
          0,
          0,
          0,
          0,
          0,
          0,
          0,
          0,
          0,
          0,
          0,
          0,
          0,
          0,
          0,
          0,
          0,
          0,
          0,
          0,
          0,
          0,
          0,
          0,
          0,
          0,
          0,
          0,
          0,
          0,
          0,
          0,
          0,
          0,
          0,
          0,
          0,
          0,
          0,
          0,
          0,
          0,
          0,
          0,
          0,
          0,
          0,
          0,
          0,
          0,
          0,
          0,
          0,
          0,
          0,
          0,
          0,
          0,
          0,
          0,
          0,
          0,
          0,
          0,
          0,
          0,
          0,
          0,
          0,
          0,
          0,
          0,
          0,
          0,
          0,
          0,
          0,
          0,
          0,
          0,
          0,
          0,
          0,
          0,
          0,
          0,
          0,
          0,
          0,
          0,
          0,
          0,
          0,
          0,
          0,
          0,
          0,
          0,
          0,
          0,
          0,
          0,
          0,
          0,
          0,
          0,
          0,
          0,
          0,
          0,
          0,
          0,
          0,
          0,
          0,
          0,
          0,
          0,
          0,
          0,
          0,
          0,
          0,
          0,
          0,
          0,
          0,
          0,
          0,
          0,
          0,
          0,
          0,
          0,
          0,
          0,
          0,
          0,
          0,
          0,
          0,
          0,
          0,
          0,
          0,
          0,
          0,
          0,
          0,
          0,
          0,
          0,
          0,
          0,
          0,
          0,
          0,
          0,
          0,
          0,
          0,
          0,
          0,
          0,
          0,
          0,
          0,
          0,
          0,
          0,
          0,
          0,
          0,
          0,
          0,
          0,
          0,
          0,
          0,
          0,
          0,
          0,
          0,
          0,
          0,
          0,
          0,
          0,
          0,
          0,
          0,
          0,
          0,
          0,
          0,
          0,
          0,
          0,
          0,
          0,
          0,
          0,
          0,
          0,
          0,
          0,
          0,
          0,
          0,
          0,
          0,
          0,
          0,
          0,
          0,
          0,
          0,
          0,
          0,
          0,
          0,
          0,
          0,
          0,
          0,
          0,
          0,
          0,
          0,
          0,
          0,
          0,
          0,
          0,
          0,
          0,
          0,
          0,
          0,
          0,
          0,
          0,
          0,
          0,
          0,
          0,
          0,
          0,
          0,
          0,
          0,
          0,
          0,
          0,
          0,
          0,
          0,
          0,
          0,
          0,
          0,
          0,
          0,
          0,
          0,
          0,
          0,
          0,
          0,
          0,
          0,
          0,
          0,
          0,
          0,
          0,
          0,
          0,
          0,
          0,
          0,
          0,
          0,
          0,
          0,
          0,
          0,
          0,
          0,
          0,
          0,
          0,
          0,
          0,
          0,
          0,
          0,
          0,
          0,
          0,
          0,
          0,
          0,
          0,
          0,
          0,
          0,
          0,
          0,
          0,
          0,
          0,
          0,
          0,
          0,
          0,
          0,
          0,
          0,
          0,
          0,
          0,
          0,
          0,
          0,
          0,
          0,
          0,
          0,
          0,
          0,
          0,
          0,
          0,
          0,
          0,
          0,
          0,
          0,
          0,
          0,
          0,
          0,
          0,
          0,
          0,
          0,
          0,
          0,
          0,
          0,
          0,
          0,
          0,
          0,
          0,
          0,
          0,
          0,
          0,
          0,
          0,
          0,
          0,
          0,
          0,
          0,
          0,
          0,
          0,
          0,
          0,
          0,
          0,
          0,
          0,
          0,
          0,
          0,
          0,
          0,
          0,
          0,
          0,
          0,
          0,
          0,
          0,
          0,
          0,
          0,
          0,
          0,
          0,
          0,
          0,
          0,
          0,
          0,
          0,
          0,
          0,
          0,
          0,
          0,
          0,
          0,
          0,
          0,
          0,
          0,
          0,
          0,
          0,
          0,
          0,
          0,
          0,
          0,
          0,
          0,
          0,
          0,
          0,
          0,
          0,
          0,
          0,
          0,
          0,
          0,
          0,
          0,
          0,
          0,
          0,
          0,
          0,
          0,
          0,
          0,
          0,
          0,
          0,
          0,
          0,
          0,
          0,
          0,
          0,
          0,
          0,
          0,
          0,
          0,
          0,
          0,
          0,
          0,
          0,
          0,
          0,
          0,
          0,
          0,
          0,
          0,
          0,
          0,
          0,
          0,
          0,
          0,
          0,
          0,
          0,
          0,
          0,
          0,
          0,
          0,
          0,
          0,
          0,
          0,
          0,
          0,
          0,
          0,
          0,
          0,
          0,
          0,
          0,
          0,
          0,
          0,
          0,
          0,
          0,
          0,
          0,
          0,
          0,
          0,
          0,
          0,
          0,
          0,
          0,
          0,
          0,
          0,
          0,
          0,
          0,
          0,
          0,
          0,
          0,
          0,
          0,
          0,
          0,
          0,
          0,
          0,
          0,
          0,
          0,
          0,
          0,
          0,
          0,
          0,
          0,
          0,
          0,
          0,
          0,
          0,
          0,
          0,
          0,
          0,
          0,
          0,
          0,
          0,
          0,
          0,
          0,
          0,
          0,
          0,
          0,
          0,
          0,
          0,
          0,
          0,
          0,
          0,
          0,
          0,
          0,
          0,
          0,
          0,
          0,
          0,
          0,
          0,
          0,
          0,
          0,
          0,
          0,
          0,
          0,
          0,
          0,
          0,
          0,
          0,
          0,
          0,
          0,
          0,
          0,
          0,
          0,
          0,
          0,
          0,
          0,
          0,
          0,
          0,
          0,
          0,
          0,
          0,
          0,
          0,
          0,
          0,
          0,
          0,
          0,
          0,
          0,
          0,
          0,
          0,
          0,
          0,
          0,
          0,
          0,
          0,
          0,
          0,
          0,
          0,
          0,
          0,
          0,
          0,
          0,
          0,
          0,
          0,
          0,
          0,
          0,
          0,
          0,
          0,
          0,
          0,
          0,
          0,
          0,
          0,
          0,
          0,
          0,
          0,
          0,
          0,
          0,
          0,
          0,
          0,
          0,
          0,
          0,
          0,
          0,
          0,
          0,
          0,
          0,
          0,
          0,
          0,
          0,
          0,
          0,
          0,
          0,
          0,
          0,
          0,
          0,
          0,
          0,
          0,
          0,
          0,
          0,
          0,
          0,
          0,
          0,
          0,
          0,
          0,
          0,
          0,
          0,
          0,
          0,
          0,
          0,
          0,
          0,
          0,
          0,
          0,
          0,
          0,
          0,
          0,
          0,
          0,
          0,
          0,
          0,
          0,
          0,
          0,
          0,
          0,
          0,
          0,
          0,
          0,
          0,
          0,
          0,
          0,
          0,
          0,
          0,
          0,
          0,
          0,
          0,
          0,
          0,
          0,
          0,
          0,
          0,
          0,
          0,
          0,
          0,
          0,
          0,
          0,
          0,
          0,
          0,
          0,
          0,
          0,
          0,
          0,
          0,
          0,
          0,
          0,
          0,
          0,
          0,
          0,
          0,
          0,
          0,
          0,
          0,
          0,
          0,
          0,
          0,
          0,
          0,
          0,
          0,
          0,
          0,
          0,
          0,
          0,
          0,
          0,
          0,
          0,
          0,
          0,
          0,
          0,
          0,
          0,
          0,
          0,
          0,
          0,
          0,
          0,
          0,
          0,
          0,
          0,
          0,
          0,
          0,
          0,
          0,
          0,
          0,
          0,
          0,
          0,
          0,
          0,
          0,
          0,
          0,
          0,
          0,
          0,
          0,
          0,
          0,
          0,
          0,
          0,
          0,
          0,
          0,
          0,
          0,
          0,
          0,
          0,
          0,
          0,
          0,
          0,
          0,
          0,
          0,
          0,
          0,
          0,
          0,
          0,
          0,
          0,
          0,
          0,
          0,
          0,
          0,
          0,
          0,
          0,
          0,
          0,
          0,
          0,
          0,
          0,
          0,
          0,
          0,
          0,
          0,
          0,
          0,
          0,
          0,
          0
        ],
        "trees": [
          {
            "base_weights": [
              -0E0,
              2.543762E-2,
              -1.3491457E0,
              1.3217072E-3,
              -1.4438064E-2
            ],
            "categories": [],
            "categories_nodes": [],
            "categories_segments": [],
            "categories_sizes": [],
            "default_left": [
              0,
              0,
              0,
              0,
              0
            ],
            "id": 0,
            "left_children": [
              1,
              -1,
              3,
              -1,
              -1
            ],
            "loss_changes": [
              1.0596008E2,
              0E0,
              3.0197945E0,
              0E0,
              0E0
            ],
            "parents": [
              2147483647,
              0,
              0,
              2,
              2
            ],
            "right_children": [
              2,
              -1,
              4,
              -1,
              -1
            ],
            "split_conditions": [
              6.276531E-1,
              2.543762E-2,
              7.9325584E1,
              1.3217072E-3,
              -1.4438064E-2
            ],
            "split_indices": [
              2448,
              0,
              1879,
              0,
              0
            ],
            "split_type": [
              0,
              0,
              0,
              0,
              0
            ],
            "sum_hessian": [
              2.8875E1,
              9.700195E0,
              1.9174805E1,
              1.1279297E0,
              1.8046875E1
            ],
            "tree_param": {
              "num_deleted": "0",
              "num_feature": "4200",
              "num_nodes": "5",
              "size_leaf_vector": "1"
            }
          },
          {
            "base_weights": [
              3.6027952E-4,
              2.5028376E-2,
              -1.341762E0,
              1.3665754E-3,
              -1.4366544E-2
            ],
            "categories": [],
            "categories_nodes": [],
            "categories_segments": [],
            "categories_sizes": [],
            "default_left": [
              0,
              0,
              0,
              0,
              0
            ],
            "id": 1,
            "left_children": [
              1,
              -1,
              3,
              -1,
              -1
            ],
            "loss_changes": [
              1.0367837E2,
              0E0,
              3.0152206E0,
              0E0,
              0E0
            ],
            "parents": [
              2147483647,
              0,
              0,
              2,
              2
            ],
            "right_children": [
              2,
              -1,
              4,
              -1,
              -1
            ],
            "split_conditions": [
              6.276531E-1,
              2.5028376E-2,
              6.3733417E-1,
              1.3665754E-3,
              -1.4366544E-2
            ],
            "split_indices": [
              2448,
              0,
              2168,
              0,
              0
            ],
            "split_type": [
              0,
              0,
              0,
              0,
              0
            ],
            "sum_hessian": [
              2.8869366E1,
              9.776181E0,
              1.9093184E1,
              1.1250377E0,
              1.7968145E1
            ],
            "tree_param": {
              "num_deleted": "0",
              "num_feature": "4200",
              "num_nodes": "5",
              "size_leaf_vector": "1"
            }
          },
          {
            "base_weights": [
              7.0914265E-4,
              2.4634695E-2,
              -1.3344955E0,
              1.3763508E-3,
              -1.4294255E-2
            ],
            "categories": [],
            "categories_nodes": [],
            "categories_segments": [],
            "categories_sizes": [],
            "default_left": [
              0,
              0,
              0,
              0,
              0
            ],
            "id": 2,
            "left_children": [
              1,
              -1,
              3,
              -1,
              -1
            ],
            "loss_changes": [
              1.01474E2,
              0E0,
              2.993229E0,
              0E0,
              0E0
            ],
            "parents": [
              2147483647,
              0,
              0,
              2,
              2
            ],
            "right_children": [
              2,
              -1,
              4,
              -1,
              -1
            ],
            "split_conditions": [
              6.276531E-1,
              2.4634695E-2,
              6.6575485E-1,
              1.3763508E-3,
              -1.4294255E-2
            ],
            "split_indices": [
              2448,
              0,
              2238,
              0,
              0
            ],
            "split_type": [
              0,
              0,
              0,
              0,
              0
            ],
            "sum_hessian": [
              2.885945E1,
              9.848697E0,
              1.9010754E1,
              1.1243885E0,
              1.7886364E1
            ],
            "tree_param": {
              "num_deleted": "0",
              "num_feature": "4200",
              "num_nodes": "5",
              "size_leaf_vector": "1"
            }
          },
          {
            "base_weights": [
              1.0462393E-3,
              2.4255726E-2,
              -1.3273478E0,
              1.4031505E-3,
              -1.4224272E-2
            ],
            "categories": [],
            "categories_nodes": [],
            "categories_segments": [],
            "categories_sizes": [],
            "default_left": [
              0,
              0,
              0,
              0,
              0
            ],
            "id": 3,
            "left_children": [
              1,
              -1,
              3,
              -1,
              -1
            ],
            "loss_changes": [
              9.9343216E1,
              0E0,
              2.9803658E0,
              0E0,
              0E0
            ],
            "parents": [
              2147483647,
              0,
              0,
              2,
              2
            ],
            "right_children": [
              2,
              -1,
              4,
              -1,
              -1
            ],
            "split_conditions": [
              6.276531E-1,
              2.4255726E-2,
              7.9325584E1,
              1.4031505E-3,
              -1.4224272E-2
            ],
            "split_indices": [
              2448,
              0,
              1879,
              0,
              0
            ],
            "split_type": [
              0,
              0,
              0,
              0,
              0
            ],
            "sum_hessian": [
              2.8845327E1,
              9.917818E0,
              1.892751E1,
              1.1226314E0,
              1.7804878E1
            ],
            "tree_param": {
              "num_deleted": "0",
              "num_feature": "4200",
              "num_nodes": "5",
              "size_leaf_vector": "1"
            }
          },
          {
            "base_weights": [
              1.3727084E-3,
              2.3890661E-2,
              -1.3203131E0,
              1.412645E-3,
              -1.4154513E-2
            ],
            "categories": [],
            "categories_nodes": [],
            "categories_segments": [],
            "categories_sizes": [],
            "default_left": [
              0,
              0,
              0,
              0,
              0
            ],
            "id": 4,
            "left_children": [
              1,
              -1,
              3,
              -1,
              -1
            ],
            "loss_changes": [
              9.72822E1,
              0E0,
              2.95924E0,
              0E0,
              0E0
            ],
            "parents": [
              2147483647,
              0,
              0,
              2,
              2
            ],
            "right_children": [
              2,
              -1,
              4,
              -1,
              -1
            ],
            "split_conditions": [
              6.276531E-1,
              2.3890661E-2,
              6.6575485E-1,
              1.412645E-3,
              -1.4154513E-2
            ],
            "split_indices": [
              2448,
              0,
              2238,
              0,
              0
            ],
            "split_type": [
              0,
              0,
              0,
              0,
              0
            ],
            "sum_hessian": [
              2.882713E1,
              9.983618E0,
              1.8843512E1,
              1.1219869E0,
              1.7721525E1
            ],
            "tree_param": {
              "num_deleted": "0",
              "num_feature": "4200",
              "num_nodes": "5",
              "size_leaf_vector": "1"
            }
          },
          {
            "base_weights": [
              1.6886661E-3,
              2.3538763E-2,
              -1.3133907E0,
              1.4390026E-3,
              -1.4086985E-2
            ],
            "categories": [],
            "categories_nodes": [],
            "categories_segments": [],
            "categories_sizes": [],
            "default_left": [
              0,
              0,
              0,
              0,
              0
            ],
            "id": 5,
            "left_children": [
              1,
              -1,
              3,
              -1,
              -1
            ],
            "loss_changes": [
              9.528761E1,
              0E0,
              2.9470367E0,
              0E0,
              0E0
            ],
            "parents": [
              2147483647,
              0,
              0,
              2,
              2
            ],
            "right_children": [
              2,
              -1,
              4,
              -1,
              -1
            ],
            "split_conditions": [
              6.276531E-1,
              2.3538763E-2,
              7.9325584E1,
              1.4390026E-3,
              -1.4086985E-2
            ],
            "split_indices": [
              2448,
              0,
              1879,
              0,
              0
            ],
            "split_type": [
              0,
              0,
              0,
              0,
              0
            ],
            "sum_hessian": [
              2.880495E1,
              1.0046173E1,
              1.8758778E1,
              1.120229E0,
              1.7638548E1
            ],
            "tree_param": {
              "num_deleted": "0",
              "num_feature": "4200",
              "num_nodes": "5",
              "size_leaf_vector": "1"
            }
          },
          {
            "base_weights": [
              1.995075E-3,
              2.3199338E-2,
              -1.3065757E0,
              1.4651155E-3,
              -1.4020589E-2
            ],
            "categories": [],
            "categories_nodes": [],
            "categories_segments": [],
            "categories_sizes": [],
            "default_left": [
              0,
              0,
              0,
              0,
              0
            ],
            "id": 6,
            "left_children": [
              1,
              -1,
              3,
              -1,
              -1
            ],
            "loss_changes": [
              9.3356186E1,
              0E0,
              2.935009E0,
              0E0,
              0E0
            ],
            "parents": [
              2147483647,
              0,
              0,
              2,
              2
            ],
            "right_children": [
              2,
              -1,
              4,
              -1,
              -1
            ],
            "split_conditions": [
              6.276531E-1,
              2.3199338E-2,
              6.3733417E-1,
              1.4651155E-3,
              -1.4020589E-2
            ],
            "split_indices": [
              2448,
              0,
              2168,
              0,
              0
            ],
            "split_type": [
              0,
              0,
              0,
              0,
              0
            ],
            "sum_hessian": [
              2.8778913E1,
              1.0105553E1,
              1.867336E1,
              1.1184288E0,
              1.7554934E1
            ],
            "tree_param": {
              "num_deleted": "0",
              "num_feature": "4200",
              "num_nodes": "5",
              "size_leaf_vector": "1"
            }
          },
          {
            "base_weights": [
              2.2923723E-3,
              2.2871742E-2,
              -1.2998651E0,
              1.4740308E-3,
              -1.3954399E-2
            ],
            "categories": [],
            "categories_nodes": [],
            "categories_segments": [],
            "categories_sizes": [],
            "default_left": [
              0,
              0,
              0,
              0,
              0
            ],
            "id": 7,
            "left_children": [
              1,
              -1,
              3,
              -1,
              -1
            ],
            "loss_changes": [
              9.148491E1,
              0E0,
              2.9150581E0,
              0E0,
              0E0
            ],
            "parents": [
              2147483647,
              0,
              0,
              2,
              2
            ],
            "right_children": [
              2,
              -1,
              4,
              -1,
              -1
            ],
            "split_conditions": [
              6.276531E-1,
              2.2871742E-2,
              7.9325584E1,
              1.4740308E-3,
              -1.3954399E-2
            ],
            "split_indices": [
              2448,
              0,
              1879,
              0,
              0
            ],
            "split_type": [
              0,
              0,
              0,
              0,
              0
            ],
            "sum_hessian": [
              2.8749132E1,
              1.0161829E1,
              1.8587303E1,
              1.1178391E0,
              1.7469463E1
            ],
            "tree_param": {
              "num_deleted": "0",
              "num_feature": "4200",
              "num_nodes": "5",
              "size_leaf_vector": "1"
            }
          },
          {
            "base_weights": [
              2.5807081E-3,
              2.255537E-2,
              -1.2932584E0,
              1.4997162E-3,
              -1.3890275E-2
            ],
            "categories": [],
            "categories_nodes": [],
            "categories_segments": [],
            "categories_sizes": [],
            "default_left": [
              0,
              0,
              0,
              0,
              0
            ],
            "id": 8,
            "left_children": [
              1,
              -1,
              3,
              -1,
              -1
            ],
            "loss_changes": [
              8.967102E1,
              0E0,
              2.9036255E0,
              0E0,
              0E0
            ],
            "parents": [
              2147483647,
              0,
              0,
              2,
              2
            ],
            "right_children": [
              2,
              -1,
              4,
              -1,
              -1
            ],
            "split_conditions": [
              6.276531E-1,
              2.255537E-2,
              6.3733417E-1,
              1.4997162E-3,
              -1.3890275E-2
            ],
            "split_indices": [
              2448,
              0,
              2168,
              0,
              0
            ],
            "split_type": [
              0,
              0,
              0,
              0,
              0
            ],
            "sum_hessian": [
              2.8715689E1,
              1.02150755E1,
              1.8500612E1,
              1.1160398E0,
              1.7384573E1
            ],
            "tree_param": {
              "num_deleted": "0",
              "num_feature": "4200",
              "num_nodes": "5",
              "size_leaf_vector": "1"
            }
          },
          {
            "base_weights": [
              2.8607512E-3,
              2.2249663E-2,
              -1.2867507E0,
              1.5082898E-3,
              -1.38263E-2
            ],
            "categories": [],
            "categories_nodes": [],
            "categories_segments": [],
            "categories_sizes": [],
            "default_left": [
              0,
              0,
              0,
              0,
              0
            ],
            "id": 9,
            "left_children": [
              1,
              -1,
              3,
              -1,
              -1
            ],
            "loss_changes": [
              8.7911835E1,
              0E0,
              2.884369E0,
              0E0,
              0E0
            ],
            "parents": [
              2147483647,
              0,
              0,
              2,
              2
            ],
            "right_children": [
              2,
              -1,
              4,
              -1,
              -1
            ],
            "split_conditions": [
              6.276531E-1,
              2.2249663E-2,
              7.9325584E1,
              1.5082898E-3,
              -1.38263E-2
            ],
            "split_indices": [
              2448,
              0,
              1879,
              0,
              0
            ],
            "split_type": [
              0,
              0,
              0,
              0,
              0
            ],
            "sum_hessian": [
              2.8678705E1,
              1.0265357E1,
              1.8413347E1,
              1.11546E0,
              1.7297888E1
            ],
            "tree_param": {
              "num_deleted": "0",
              "num_feature": "4200",
              "num_nodes": "5",
              "size_leaf_vector": "1"
            }
          },
          {
            "base_weights": [
              3.1325773E-3,
              2.195409E-2,
              -1.2803416E0,
              1.5502885E-3,
              -1.3765267E-2
            ],
            "categories": [],
            "categories_nodes": [],
            "categories_segments": [],
            "categories_sizes": [],
            "default_left": [
              0,
              0,
              0,
              0,
              0
            ],
            "id": 10,
            "left_children": [
              1,
              -1,
              3,
              -1,
              -1
            ],
            "loss_changes": [
              8.620496E1,
              0E0,
              2.881506E0,
              0E0,
              0E0
            ],
            "parents": [
              2147483647,
              0,
              0,
              2,
              2
            ],
            "right_children": [
              2,
              -1,
              4,
              -1,
              -1
            ],
            "split_conditions": [
              6.276531E-1,
              2.195409E-2,
              6.6575485E-1,
              1.5502885E-3,
              -1.3765267E-2
            ],
            "split_indices": [
              2448,
              0,
              2238,
              0,
              0
            ],
            "split_type": [
              0,
              0,
              0,
              0,
              0
            ],
            "sum_hessian": [
              2.8638266E1,
              1.0312747E1,
              1.8325518E1,
              1.112463E0,
              1.7213055E1
            ],
            "tree_param": {
              "num_deleted": "0",
              "num_feature": "4200",
              "num_nodes": "5",
              "size_leaf_vector": "1"
            }
          },
          {
            "base_weights": [
              3.3975558E-3,
              2.011511E0,
              -1.3734142E-2,
              -3.2809472E-3,
              2.2705907E-2
            ],
            "categories": [],
            "categories_nodes": [],
            "categories_segments": [],
            "categories_sizes": [],
            "default_left": [
              0,
              0,
              0,
              0,
              0
            ],
            "id": 11,
            "left_children": [
              1,
              3,
              -1,
              -1,
              -1
            ],
            "loss_changes": [
              8.458536E1,
              8.287384E0,
              0E0,
              0E0,
              0E0
            ],
            "parents": [
              2147483647,
              0,
              0,
              1,
              1
            ],
            "right_children": [
              2,
              4,
              -1,
              -1,
              -1
            ],
            "split_conditions": [
              6.8403286E-1,
              1.4929517E2,
              -1.3734142E-2,
              -3.2809472E-3,
              2.2705907E-2
            ],
            "split_indices": [
              2238,
              1036,
              0,
              0,
              0
            ],
            "split_type": [
              0,
              0,
              0,
              0,
              0
            ],
            "sum_hessian": [
              2.8594505E1,
              1.1443252E1,
              1.7151253E1,
              1.1142943E0,
              1.0328958E1
            ],
            "tree_param": {
              "num_deleted": "0",
              "num_feature": "4200",
              "num_nodes": "5",
              "size_leaf_vector": "1"
            }
          },
          {
            "base_weights": [
              3.5232315E-3,
              1.9859498E0,
              -1.36718415E-2,
              -3.2933261E-3,
              2.2417605E-2
            ],
            "categories": [],
            "categories_nodes": [],
            "categories_segments": [],
            "categories_sizes": [],
            "default_left": [
              0,
              0,
              0,
              0,
              0
            ],
            "id": 12,
            "left_children": [
              1,
              3,
              -1,
              -1,
              -1
            ],
            "loss_changes": [
              8.30095E1,
              8.133945E0,
              0E0,
              0E0,
              0E0
            ],
            "parents": [
              2147483647,
              0,
              0,
              1,
              1
            ],
            "right_children": [
              2,
              4,
              -1,
              -1,
              -1
            ],
            "split_conditions": [
              6.8403286E-1,
              1.5433636E2,
              -1.36718415E-2,
              -3.2933261E-3,
              2.2417605E-2
            ],
            "split_indices": [
              2238,
              1806,
              0,
              0,
              0
            ],
            "split_type": [
              0,
              0,
              0,
              0,
              0
            ],
            "sum_hessian": [
              2.8549019E1,
              1.1486898E1,
              1.706212E1,
              1.1142926E0,
              1.0372606E1
            ],
            "tree_param": {
              "num_deleted": "0",
              "num_feature": "4200",
              "num_nodes": "5",
              "size_leaf_vector": "1"
            }
          },
          {
            "base_weights": [
              3.6417479E-3,
              1.9611765E0,
              -1.3610565E-2,
              2.2138638E-2,
              -3.3055623E-3
            ],
            "categories": [],
            "categories_nodes": [],
            "categories_segments": [],
            "categories_sizes": [],
            "default_left": [
              0,
              0,
              0,
              0,
              0
            ],
            "id": 13,
            "left_children": [
              1,
              3,
              -1,
              -1,
              -1
            ],
            "loss_changes": [
              8.147738E1,
              7.986496E0,
              0E0,
              0E0,
              0E0
            ],
            "parents": [
              2147483647,
              0,
              0,
              1,
              1
            ],
            "right_children": [
              2,
              4,
              -1,
              -1,
              -1
            ],
            "split_conditions": [
              6.8403286E-1,
              1.617741E2,
              -1.3610565E-2,
              2.2138638E-2,
              -3.3055623E-3
            ],
            "split_indices": [
              2238,
              1808,
              0,
              0,
              0
            ],
            "split_type": [
              0,
              0,
              0,
              0,
              0
            ],
            "sum_hessian": [
              2.8500187E1,
              1.1527693E1,
              1.6972496E1,
              1.0413476E1,
              1.114216E0
            ],
            "tree_param": {
              "num_deleted": "0",
              "num_feature": "4200",
              "num_nodes": "5",
              "size_leaf_vector": "1"
            }
          },
          {
            "base_weights": [
              3.7533701E-3,
              1.9371561E0,
              -1.3550292E-2,
              -3.3176565E-3,
              2.1868581E-2
            ],
            "categories": [],
            "categories_nodes": [],
            "categories_segments": [],
            "categories_sizes": [],
            "default_left": [
              0,
              0,
              0,
              0,
              0
            ],
            "id": 14,
            "left_children": [
              1,
              3,
              -1,
              -1,
              -1
            ],
            "loss_changes": [
              7.9987274E1,
              7.8446693E0,
              0E0,
              0E0,
              0E0
            ],
            "parents": [
              2147483647,
              0,
              0,
              1,
              1
            ],
            "right_children": [
              2,
              4,
              -1,
              -1,
              -1
            ],
            "split_conditions": [
              6.8403286E-1,
              6.5674347E-1,
              -1.3550292E-2,
              -3.3176565E-3,
              2.1868581E-2
            ],
            "split_indices": [
              2238,
              2835,
              0,
              0,
              0
            ],
            "split_type": [
              0,
              0,
              0,
              0,
              0
            ],
            "sum_hessian": [
              2.844811E1,
              1.1565699E1,
              1.6882412E1,
              1.1140661E0,
              1.04516325E1
            ],
            "tree_param": {
              "num_deleted": "0",
              "num_feature": "4200",
              "num_nodes": "5",
              "size_leaf_vector": "1"
            }
          },
          {
            "base_weights": [
              3.8583558E-3,
              1.9138544E0,
              -1.34909935E-2,
              -3.3296084E-3,
              2.1607012E-2
            ],
            "categories": [],
            "categories_nodes": [],
            "categories_segments": [],
            "categories_sizes": [],
            "default_left": [
              0,
              0,
              0,
              0,
              0
            ],
            "id": 15,
            "left_children": [
              1,
              3,
              -1,
              -1,
              -1
            ],
            "loss_changes": [
              7.853742E1,
              7.7081795E0,
              0E0,
              0E0,
              0E0
            ],
            "parents": [
              2147483647,
              0,
              0,
              1,
              1
            ],
            "right_children": [
              2,
              4,
              -1,
              -1,
              -1
            ],
            "split_conditions": [
              6.8403286E-1,
              1.4785672E0,
              -1.34909935E-2,
              -3.3296084E-3,
              2.1607012E-2
            ],
            "split_indices": [
              2238,
              2838,
              0,
              0,
              0
            ],
            "split_type": [
              0,
              0,
              0,
              0,
              0
            ],
            "sum_hessian": [
              2.8392885E1,
              1.1600985E1,
              1.67919E1,
              1.1138446E0,
              1.048714E1
            ],
            "tree_param": {
              "num_deleted": "0",
              "num_feature": "4200",
              "num_nodes": "5",
              "size_leaf_vector": "1"
            }
          },
          {
            "base_weights": [
              3.9569293E-3,
              2.0394618E-2,
              -1.245224E0,
              1.5115186E-3,
              -1.3415022E-2
            ],
            "categories": [],
            "categories_nodes": [],
            "categories_segments": [],
            "categories_sizes": [],
            "default_left": [
              0,
              0,
              0,
              0,
              0
            ],
            "id": 16,
            "left_children": [
              1,
              -1,
              3,
              -1,
              -1
            ],
            "loss_changes": [
              7.712909E1,
              0E0,
              2.730175E0,
              0E0,
              0E0
            ],
            "parents": [
              2147483647,
              0,
              0,
              2,
              2
            ],
            "right_children": [
              2,
              -1,
              4,
              -1,
              -1
            ],
            "split_conditions": [
              6.276531E-1,
              2.0394618E-2,
              7.9325584E1,
              1.5115186E-3,
              -1.3415022E-2
            ],
            "split_indices": [
              2448,
              0,
              1879,
              0,
              0
            ],
            "split_type": [
              0,
              0,
              0,
              0,
              0
            ],
            "sum_hessian": [
              2.8334602E1,
              1.0535182E1,
              1.779942E1,
              1.1113248E0,
              1.6688095E1
            ],
            "tree_param": {
              "num_deleted": "0",
              "num_feature": "4200",
              "num_nodes": "5",
              "size_leaf_vector": "1"
            }
          },
          {
            "base_weights": [
              4.184505E-3,
              1.8718917E0,
              -1.3381194E-2,
              2.1124039E-2,
              -3.315763E-3
            ],
            "categories": [],
            "categories_nodes": [],
            "categories_segments": [],
            "categories_sizes": [],
            "default_left": [
              0,
              0,
              0,
              0,
              0
            ],
            "id": 17,
            "left_children": [
              1,
              3,
              -1,
              -1,
              -1
            ],
            "loss_changes": [
              7.589293E1,
              7.408497E0,
              0E0,
              0E0,
              0E0
            ],
            "parents": [
              2147483647,
              0,
              0,
              1,
              1
            ],
            "right_children": [
              2,
              4,
              -1,
              -1,
              -1
            ],
            "split_conditions": [
              6.8403286E-1,
              1.9672146E-1,
              -1.3381194E-2,
              2.1124039E-2,
              -3.315763E-3
            ],
            "split_indices": [
              2238,
              2073,
              0,
              0,
              0
            ],
            "split_type": [
              0,
              0,
              0,
              0,
              0
            ],
            "sum_hessian": [
              2.8272919E1,
              1.1657675E1,
              1.6615244E1,
              1.0547703E1,
              1.1099716E0
            ],
            "tree_param": {
              "num_deleted": "0",
              "num_feature": "4200",
              "num_nodes": "5",
              "size_leaf_vector": "1"
            }
          },
          {
            "base_weights": [
              4.2717536E-3,
              1.8505129E0,
              -1.3324602E-2,
              2.0885266E-2,
              -3.3275138E-3
            ],
            "categories": [],
            "categories_nodes": [],
            "categories_segments": [],
            "categories_sizes": [],
            "default_left": [
              0,
              0,
              0,
              0,
              0
            ],
            "id": 18,
            "left_children": [
              1,
              3,
              -1,
              -1,
              -1
            ],
            "loss_changes": [
              7.455145E1,
              7.286854E0,
              0E0,
              0E0,
              0E0
            ],
            "parents": [
              2147483647,
              0,
              0,
              1,
              1
            ],
            "right_children": [
              2,
              4,
              -1,
              -1,
              -1
            ],
            "split_conditions": [
              6.8403286E-1,
              1.6448434E2,
              -1.3324602E-2,
              2.0885266E-2,
              -3.3275138E-3
            ],
            "split_indices": [
              2238,
              2084,
              0,
              0,
              0
            ],
            "split_type": [
              0,
              0,
              0,
              0,
              0
            ],
            "sum_hessian": [
              2.8208986E1,
              1.1685324E1,
              1.6523663E1,
              1.0575773E1,
              1.1095505E0
            ],
            "tree_param": {
              "num_deleted": "0",
              "num_feature": "4200",
              "num_nodes": "5",
              "size_leaf_vector": "1"
            }
          },
          {
            "base_weights": [
              4.3532504E-3,
              1.8297383E0,
              -1.3268897E-2,
              2.0653589E-2,
              -3.3391227E-3
            ],
            "categories": [],
            "categories_nodes": [],
            "categories_segments": [],
            "categories_sizes": [],
            "default_left": [
              0,
              0,
              0,
              0,
              0
            ],
            "id": 19,
            "left_children": [
              1,
              3,
              -1,
              -1,
              -1
            ],
            "loss_changes": [
              7.324446E1,
              7.1694794E0,
              0E0,
              0E0,
              0E0
            ],
            "parents": [
              2147483647,
              0,
              0,
              1,
              1
            ],
            "right_children": [
              2,
              4,
              -1,
              -1,
              -1
            ],
            "split_conditions": [
              6.8403286E-1,
              1.5859169E2,
              -1.3268897E-2,
              2.0653589E-2,
              -3.3391227E-3
            ],
            "split_indices": [
              2238,
              2088,
              0,
              0,
              0
            ],
            "split_type": [
              0,
              0,
              0,
              0,
              0
            ],
            "sum_hessian": [
              2.8142262E1,
              1.1710501E1,
              1.643176E1,
              1.0601437E1,
              1.1090636E0
            ],
            "tree_param": {
              "num_deleted": "0",
              "num_feature": "4200",
              "num_nodes": "5",
              "size_leaf_vector": "1"
            }
          },
          {
            "base_weights": [
              4.429455E-3,
              1.8095422E0,
              -1.3214055E-2,
              2.0428699E-2,
              -3.350591E-3
            ],
            "categories": [],
            "categories_nodes": [],
            "categories_segments": [],
            "categories_sizes": [],
            "default_left": [
              0,
              0,
              0,
              0,
              0
            ],
            "id": 20,
            "left_children": [
              1,
              3,
              -1,
              -1,
              -1
            ],
            "loss_changes": [
              7.197062E1,
              7.056141E0,
              0E0,
              0E0,
              0E0
            ],
            "parents": [
              2147483647,
              0,
              0,
              1,
              1
            ],
            "right_children": [
              2,
              4,
              -1,
              -1,
              -1
            ],
            "split_conditions": [
              6.8403286E-1,
              1.5486176E2,
              -1.3214055E-2,
              2.0428699E-2,
              -3.350591E-3
            ],
            "split_indices": [
              2238,
              2089,
              0,
              0,
              0
            ],
            "split_type": [
              0,
              0,
              0,
              0,
              0
            ],
            "sum_hessian": [
              2.8072836E1,
              1.1733266E1,
              1.633957E1,
              1.0624753E1,
              1.1085129E0
            ],
            "tree_param": {
              "num_deleted": "0",
              "num_feature": "4200",
              "num_nodes": "5",
              "size_leaf_vector": "1"
            }
          },
          {
            "base_weights": [
              4.5004967E-3,
              1.7899008E0,
              -1.3160059E-2,
              -3.361918E-3,
              2.0210307E-2
            ],
            "categories": [],
            "categories_nodes": [],
            "categories_segments": [],
            "categories_sizes": [],
            "default_left": [
              0,
              0,
              0,
              0,
              0
            ],
            "id": 21,
            "left_children": [
              1,
              3,
              -1,
              -1,
              -1
            ],
            "loss_changes": [
              7.072872E1,
              6.9466553E0,
              0E0,
              0E0,
              0E0
            ],
            "parents": [
              2147483647,
              0,
              0,
              1,
              1
            ],
            "right_children": [
              2,
              4,
              -1,
              -1,
              -1
            ],
            "split_conditions": [
              6.8403286E-1,
              1.4624013E0,
              -1.3160059E-2,
              -3.361918E-3,
              2.0210307E-2
            ],
            "split_indices": [
              2238,
              3118,
              0,
              0,
              0
            ],
            "split_type": [
              0,
              0,
              0,
              0,
              0
            ],
            "sum_hessian": [
              2.8000792E1,
              1.1753678E1,
              1.6247112E1,
              1.1078992E0,
              1.064578E1
            ],
            "tree_param": {
              "num_deleted": "0",
              "num_feature": "4200",
              "num_nodes": "5",
              "size_leaf_vector": "1"
            }
          },
          {
            "base_weights": [
              4.566525E-3,
              1.7707914E0,
              -1.3106884E-2,
              -3.373105E-3,
              1.999814E-2
            ],
            "categories": [],
            "categories_nodes": [],
            "categories_segments": [],
            "categories_sizes": [],
            "default_left": [
              0,
              0,
              0,
              0,
              0
            ],
            "id": 22,
            "left_children": [
              1,
              3,
              -1,
              -1,
              -1
            ],
            "loss_changes": [
              6.95176E1,
              6.840824E0,
              0E0,
              0E0,
              0E0
            ],
            "parents": [
              2147483647,
              0,
              0,
              1,
              1
            ],
            "right_children": [
              2,
              4,
              -1,
              -1,
              -1
            ],
            "split_conditions": [
              6.8403286E-1,
              1.3692387E0,
              -1.3106884E-2,
              -3.373105E-3,
              1.999814E-2
            ],
            "split_indices": [
              2238,
              3894,
              0,
              0,
              0
            ],
            "split_type": [
              0,
              0,
              0,
              0,
              0
            ],
            "sum_hessian": [
              2.7926216E1,
              1.1771799E1,
              1.6154417E1,
              1.1072246E0,
              1.0664575E1
            ],
            "tree_param": {
              "num_deleted": "0",
              "num_feature": "4200",
              "num_nodes": "5",
              "size_leaf_vector": "1"
            }
          },
          {
            "base_weights": [
              4.627615E-3,
              1.7521923E0,
              -1.3054518E-2,
              -3.384154E-3,
              1.979194E-2
            ],
            "categories": [],
            "categories_nodes": [],
            "categories_segments": [],
            "categories_sizes": [],
            "default_left": [
              0,
              0,
              0,
              0,
              0
            ],
            "id": 23,
            "left_children": [
              1,
              3,
              -1,
              -1,
              -1
            ],
            "loss_changes": [
              6.833613E1,
              6.7384644E0,
              0E0,
              0E0,
              0E0
            ],
            "parents": [
              2147483647,
              0,
              0,
              1,
              1
            ],
            "right_children": [
              2,
              4,
              -1,
              -1,
              -1
            ],
            "split_conditions": [
              6.8403286E-1,
              6.868222E-1,
              -1.3054518E-2,
              -3.384154E-3,
              1.979194E-2
            ],
            "split_indices": [
              2238,
              2622,
              0,
              0,
              0
            ],
            "split_type": [
              0,
              0,
              0,
              0,
              0
            ],
            "sum_hessian": [
              2.7849186E1,
              1.1787682E1,
              1.6061504E1,
              1.10649E0,
              1.0681191E1
            ],
            "tree_param": {
              "num_deleted": "0",
              "num_feature": "4200",
              "num_nodes": "5",
              "size_leaf_vector": "1"
            }
          },
          {
            "base_weights": [
              4.6842056E-3,
              1.7340834E0,
              -1.3002937E-2,
              -3.395064E-3,
              1.9591466E-2
            ],
            "categories": [],
            "categories_nodes": [],
            "categories_segments": [],
            "categories_sizes": [],
            "default_left": [
              0,
              0,
              0,
              0,
              0
            ],
            "id": 24,
            "left_children": [
              1,
              3,
              -1,
              -1,
              -1
            ],
            "loss_changes": [
              6.718326E1,
              6.639412E0,
              0E0,
              0E0,
              0E0
            ],
            "parents": [
              2147483647,
              0,
              0,
              1,
              1
            ],
            "right_children": [
              2,
              4,
              -1,
              -1,
              -1
            ],
            "split_conditions": [
              6.8403286E-1,
              6.531495E-1,
              -1.3002937E-2,
              -3.395064E-3,
              1.9591466E-2
            ],
            "split_indices": [
              2238,
              2625,
              0,
              0,
              0
            ],
            "split_type": [
              0,
              0,
              0,
              0,
              0
            ],
            "sum_hessian": [
              2.7769787E1,
              1.1801385E1,
              1.5968402E1,
              1.1056972E0,
              1.0695687E1
            ],
            "tree_param": {
              "num_deleted": "0",
              "num_feature": "4200",
              "num_nodes": "5",
              "size_leaf_vector": "1"
            }
          },
          {
            "base_weights": [
              4.7361758E-3,
              1.7164451E0,
              -1.295212E-2,
              -3.4058366E-3,
              1.939648E-2
            ],
            "categories": [],
            "categories_nodes": [],
            "categories_segments": [],
            "categories_sizes": [],
            "default_left": [
              0,
              0,
              0,
              0,
              0
            ],
            "id": 25,
            "left_children": [
              1,
              3,
              -1,
              -1,
              -1
            ],
            "loss_changes": [
              6.605799E1,
              6.5434914E0,
              0E0,
              0E0,
              0E0
            ],
            "parents": [
              2147483647,
              0,
              0,
              1,
              1
            ],
            "right_children": [
              2,
              4,
              -1,
              -1,
              -1
            ],
            "split_conditions": [
              6.8403286E-1,
              1.34537E0,
              -1.295212E-2,
              -3.4058366E-3,
              1.939648E-2
            ],
            "split_indices": [
              2238,
              3407,
              0,
              0,
              0
            ],
            "split_type": [
              0,
              0,
              0,
              0,
              0
            ],
            "sum_hessian": [
              2.7688093E1,
              1.1812962E1,
              1.5875132E1,
              1.1048472E0,
              1.0708115E1
            ],
            "tree_param": {
              "num_deleted": "0",
              "num_feature": "4200",
              "num_nodes": "5",
              "size_leaf_vector": "1"
            }
          },
          {
            "base_weights": [
              4.7838525E-3,
              1.6992594E0,
              -1.2902056E-2,
              -3.4164726E-3,
              1.920677E-2
            ],
            "categories": [],
            "categories_nodes": [],
            "categories_segments": [],
            "categories_sizes": [],
            "default_left": [
              0,
              0,
              0,
              0,
              0
            ],
            "id": 26,
            "left_children": [
              1,
              3,
              -1,
              -1,
              -1
            ],
            "loss_changes": [
              6.495936E1,
              6.450577E0,
              0E0,
              0E0,
              0E0
            ],
            "parents": [
              2147483647,
              0,
              0,
              1,
              1
            ],
            "right_children": [
              2,
              4,
              -1,
              -1,
              -1
            ],
            "split_conditions": [
              6.8403286E-1,
              1.4777032E0,
              -1.2902056E-2,
              -3.4164726E-3,
              1.920677E-2
            ],
            "split_indices": [
              2238,
              2698,
              0,
              0,
              0
            ],
            "split_type": [
              0,
              0,
              0,
              0,
              0
            ],
            "sum_hessian": [
              2.7604185E1,
              1.1822469E1,
              1.5781715E1,
              1.1039417E0,
              1.0718528E1
            ],
            "tree_param": {
              "num_deleted": "0",
              "num_feature": "4200",
              "num_nodes": "5",
              "size_leaf_vector": "1"
            }
          },
          {
            "base_weights": [
              4.827351E-3,
              1.6825086E0,
              -1.2852724E-2,
              1.9022124E-2,
              -3.4269714E-3
            ],
            "categories": [],
            "categories_nodes": [],
            "categories_segments": [],
            "categories_sizes": [],
            "default_left": [
              0,
              0,
              0,
              0,
              0
            ],
            "id": 27,
            "left_children": [
              1,
              3,
              -1,
              -1,
              -1
            ],
            "loss_changes": [
              6.3886444E1,
              6.3605194E0,
              0E0,
              0E0,
              0E0
            ],
            "parents": [
              2147483647,
              0,
              0,
              1,
              1
            ],
            "right_children": [
              2,
              4,
              -1,
              -1,
              -1
            ],
            "split_conditions": [
              6.8403286E-1,
              1.6592775E2,
              -1.2852724E-2,
              1.9022124E-2,
              -3.4269714E-3
            ],
            "split_indices": [
              2238,
              2224,
              0,
              0,
              0
            ],
            "split_type": [
              0,
              0,
              0,
              0,
              0
            ],
            "sum_hessian": [
              2.7518133E1,
              1.1829959E1,
              1.5688174E1,
              1.0726976E1,
              1.1029818E0
            ],
            "tree_param": {
              "num_deleted": "0",
              "num_feature": "4200",
              "num_nodes": "5",
              "size_leaf_vector": "1"
            }
          },
          {
            "base_weights": [
              4.8667383E-3,
              1.800525E-2,
              -1.1844944E0,
              1.4412041E-3,
              -1.2808784E-2
            ],
            "categories": [],
            "categories_nodes": [],
            "categories_segments": [],
            "categories_sizes": [],
            "default_left": [
              0,
              0,
              0,
              0,
              0
            ],
            "id": 28,
            "left_children": [
              1,
              -1,
              3,
              -1,
              -1
            ],
            "loss_changes": [
              6.2850296E1,
              0E0,
              2.4519138E0,
              0E0,
              0E0
            ],
            "parents": [
              2147483647,
              0,
              0,
              2,
              2
            ],
            "right_children": [
              2,
              -1,
              4,
              -1,
              -1
            ],
            "split_conditions": [
              6.276531E-1,
              1.800525E-2,
              7.9325584E1,
              1.4412041E-3,
              -1.2808784E-2
            ],
            "split_indices": [
              2448,
              0,
              1879,
              0,
              0
            ],
            "split_type": [
              0,
              0,
              0,
              0,
              0
            ],
            "sum_hessian": [
              2.7430016E1,
              1.0724564E1,
              1.6705452E1,
              1.0964248E0,
              1.5609028E1
            ],
            "tree_param": {
              "num_deleted": "0",
              "num_feature": "4200",
              "num_nodes": "5",
              "size_leaf_vector": "1"
            }
          },
          {
            "base_weights": [
              5.044675E-3,
              1.6523399E0,
              -1.2761239E-2,
              1.8679073E-2,
              -3.4136933E-3
            ],
            "categories": [],
            "categories_nodes": [],
            "categories_segments": [],
            "categories_sizes": [],
            "default_left": [
              0,
              0,
              0,
              0,
              0
            ],
            "id": 29,
            "left_children": [
              1,
              3,
              -1,
              -1,
              -1
            ],
            "loss_changes": [
              6.1921856E1,
              6.1537514E0,
              0E0,
              0E0,
              0E0
            ],
            "parents": [
              2147483647,
              0,
              0,
              1,
              1
            ],
            "right_children": [
              2,
              4,
              -1,
              -1,
              -1
            ],
            "split_conditions": [
              6.8403286E-1,
              1.722656E2,
              -1.2761239E-2,
              1.8679073E-2,
              -3.4136933E-3
            ],
            "split_indices": [
              2238,
              1738,
              0,
              0,
              0
            ],
            "split_type": [
              0,
              0,
              0,
              0,
              0
            ],
            "sum_hessian": [
              2.7341301E1,
              1.1834752E1,
              1.5506548E1,
              1.0736934E1,
              1.097818E0
            ],
            "tree_param": {
              "num_deleted": "0",
              "num_feature": "4200",
              "num_nodes": "5",
              "size_leaf_vector": "1"
            }
          },
          {
            "base_weights": [
              5.0768424E-3,
              1.6367669E0,
              -1.2713941E-2,
              1.8503454E-2,
              -3.39768E-3
            ],
            "categories": [],
            "categories_nodes": [],
            "categories_segments": [],
            "categories_sizes": [],
            "default_left": [
              0,
              0,
              0,
              0,
              0
            ],
            "id": 30,
            "left_children": [
              1,
              3,
              -1,
              -1,
              -1
            ],
            "loss_changes": [
              6.0918945E1,
              6.0476036E0,
              0E0,
              0E0,
              0E0
            ],
            "parents": [
              2147483647,
              0,
              0,
              1,
              1
            ],
            "right_children": [
              2,
              4,
              -1,
              -1,
              -1
            ],
            "split_conditions": [
              6.8403286E-1,
              1.722656E2,
              -1.2713941E-2,
              1.8503454E-2,
              -3.39768E-3
            ],
            "split_indices": [
              2238,
              1738,
              0,
              0,
              0
            ],
            "split_type": [
              0,
              0,
              0,
              0,
              0
            ],
            "sum_hessian": [
              2.7249388E1,
              1.1836606E1,
              1.5412782E1,
              1.0739925E1,
              1.0966811E0
            ],
            "tree_param": {
              "num_deleted": "0",
              "num_feature": "4200",
              "num_nodes": "5",
              "size_leaf_vector": "1"
            }
          },
          {
            "base_weights": [
              5.106034E-3,
              1.6215768E0,
              -1.2667313E-2,
              1.8337065E-2,
              -3.407391E-3
            ],
            "categories": [],
            "categories_nodes": [],
            "categories_segments": [],
            "categories_sizes": [],
            "default_left": [
              0,
              0,
              0,
              0,
              0
            ],
            "id": 31,
            "left_children": [
              1,
              3,
              -1,
              -1,
              -1
            ],
            "loss_changes": [
              5.993879E1,
              5.9682503E0,
              0E0,
              0E0,
              0E0
            ],
            "parents": [
              2147483647,
              0,
              0,
              1,
              1
            ],
            "right_children": [
              2,
              4,
              -1,
              -1,
              -1
            ],
            "split_conditions": [
              6.8403286E-1,
              1.6592775E2,
              -1.2667313E-2,
              1.8337065E-2,
              -3.407391E-3
            ],
            "split_indices": [
              2238,
              2224,
              0,
              0,
              0
            ],
            "split_type": [
              0,
              0,
              0,
              0,
              0
            ],
            "sum_hessian": [
              2.7155563E1,
              1.1836591E1,
              1.5318973E1,
              1.0741009E1,
              1.0955821E0
            ],
            "tree_param": {
              "num_deleted": "0",
              "num_feature": "4200",
              "num_nodes": "5",
              "size_leaf_vector": "1"
            }
          },
          {
            "base_weights": [
              5.131773E-3,
              1.6067474E0,
              -1.2621339E-2,
              -3.417187E-3,
              1.8174894E-2
            ],
            "categories": [],
            "categories_nodes": [],
            "categories_segments": [],
            "categories_sizes": [],
            "default_left": [
              0,
              0,
              0,
              0,
              0
            ],
            "id": 32,
            "left_children": [
              1,
              3,
              -1,
              -1,
              -1
            ],
            "loss_changes": [
              5.8980427E1,
              5.89135E0,
              0E0,
              0E0,
              0E0
            ],
            "parents": [
              2147483647,
              0,
              0,
              1,
              1
            ],
            "right_children": [
              2,
              4,
              -1,
              -1,
              -1
            ],
            "split_conditions": [
              6.8403286E-1,
              1.4777032E0,
              -1.2621339E-2,
              -3.417187E-3,
              1.8174894E-2
            ],
            "split_indices": [
              2238,
              2698,
              0,
              0,
              0
            ],
            "split_type": [
              0,
              0,
              0,
              0,
              0
            ],
            "sum_hessian": [
              2.7059946E1,
              1.1834808E1,
              1.5225138E1,
              1.094436E0,
              1.0740372E1
            ],
            "tree_param": {
              "num_deleted": "0",
              "num_feature": "4200",
              "num_nodes": "5",
              "size_leaf_vector": "1"
            }
          },
          {
            "base_weights": [
              5.1539396E-3,
              1.5922656E0,
              -1.2576005E-2,
              -3.4268473E-3,
              1.8016746E-2
            ],
            "categories": [],
            "categories_nodes": [],
            "categories_segments": [],
            "categories_sizes": [],
            "default_left": [
              0,
              0,
              0,
              0,
              0
            ],
            "id": 33,
            "left_children": [
              1,
              3,
              -1,
              -1,
              -1
            ],
            "loss_changes": [
              5.8043194E1,
              5.8166046E0,
              0E0,
              0E0,
              0E0
            ],
            "parents": [
              2147483647,
              0,
              0,
              1,
              1
            ],
            "right_children": [
              2,
              4,
              -1,
              -1,
              -1
            ],
            "split_conditions": [
              6.8403286E-1,
              1.34537E0,
              -1.2576005E-2,
              -3.4268473E-3,
              1.8016746E-2
            ],
            "split_indices": [
              2238,
              3407,
              0,
              0,
              0
            ],
            "split_type": [
              0,
              0,
              0,
              0,
              0
            ],
            "sum_hessian": [
              2.6962603E1,
              1.18313055E1,
              1.5131297E1,
              1.0932437E0,
              1.0738062E1
            ],
            "tree_param": {
              "num_deleted": "0",
              "num_feature": "4200",
              "num_nodes": "5",
              "size_leaf_vector": "1"
            }
          },
          {
            "base_weights": [
              5.1726904E-3,
              1.5781192E0,
              -1.25312945E-2,
              -3.4363705E-3,
              1.7862476E-2
            ],
            "categories": [],
            "categories_nodes": [],
            "categories_segments": [],
            "categories_sizes": [],
            "default_left": [
              0,
              0,
              0,
              0,
              0
            ],
            "id": 34,
            "left_children": [
              1,
              3,
              -1,
              -1,
              -1
            ],
            "loss_changes": [
              5.7126392E1,
              5.7439194E0,
              0E0,
              0E0,
              0E0
            ],
            "parents": [
              2147483647,
              0,
              0,
              1,
              1
            ],
            "right_children": [
              2,
              4,
              -1,
              -1,
              -1
            ],
            "split_conditions": [
              6.8403286E-1,
              6.531495E-1,
              -1.25312945E-2,
              -3.4363705E-3,
              1.7862476E-2
            ],
            "split_indices": [
              2238,
              2625,
              0,
              0,
              0
            ],
            "split_type": [
              0,
              0,
              0,
              0,
              0
            ],
            "sum_hessian": [
              2.68636E1,
              1.1826128E1,
              1.5037472E1,
              1.092006E0,
              1.0734121E1
            ],
            "tree_param": {
              "num_deleted": "0",
              "num_feature": "4200",
              "num_nodes": "5",
              "size_leaf_vector": "1"
            }
          },
          {
            "base_weights": [
              5.1882667E-3,
              1.6924769E-2,
              -1.1535708E0,
              1.4014491E-3,
              -1.2500705E-2
            ],
            "categories": [],
            "categories_nodes": [],
            "categories_segments": [],
            "categories_sizes": [],
            "default_left": [
              0,
              0,
              0,
              0,
              0
            ],
            "id": 35,
            "left_children": [
              1,
              -1,
              3,
              -1,
              -1
            ],
            "loss_changes": [
              5.6233517E1,
              0E0,
              2.3042755E0,
              0E0,
              0E0
            ],
            "parents": [
              2147483647,
              0,
              0,
              2,
              2
            ],
            "right_children": [
              2,
              -1,
              4,
              -1,
              -1
            ],
            "split_conditions": [
              6.276531E-1,
              1.6924769E-2,
              7.9325584E1,
              1.4014491E-3,
              -1.2500705E-2
            ],
            "split_indices": [
              2448,
              0,
              1879,
              0,
              0
            ],
            "split_type": [
              0,
              0,
              0,
              0,
              0
            ],
            "sum_hessian": [
              2.6762995E1,
              1.0708937E1,
              1.6054058E1,
              1.0829755E0,
              1.4971083E1
            ],
            "tree_param": {
              "num_deleted": "0",
              "num_feature": "4200",
              "num_nodes": "5",
              "size_leaf_vector": "1"
            }
          },
          {
            "base_weights": [
              5.3464025E-3,
              1.5526735E0,
              -1.2448392E-2,
              -3.4229532E-3,
              1.7575115E-2
            ],
            "categories": [],
            "categories_nodes": [],
            "categories_segments": [],
            "categories_sizes": [],
            "default_left": [
              0,
              0,
              0,
              0,
              0
            ],
            "id": 36,
            "left_children": [
              1,
              3,
              -1,
              -1,
              -1
            ],
            "loss_changes": [
              5.544548E1,
              5.572918E0,
              0E0,
              0E0,
              0E0
            ],
            "parents": [
              2147483647,
              0,
              0,
              1,
              1
            ],
            "right_children": [
              2,
              4,
              -1,
              -1,
              -1
            ],
            "split_conditions": [
              6.8403286E-1,
              6.868222E-1,
              -1.2448392E-2,
              -3.4229532E-3,
              1.7575115E-2
            ],
            "split_indices": [
              2238,
              2622,
              0,
              0,
              0
            ],
            "split_type": [
              0,
              0,
              0,
              0,
              0
            ],
            "sum_hessian": [
              2.666304E1,
              1.1807368E1,
              1.4855673E1,
              1.0863582E0,
              1.0721009E1
            ],
            "tree_param": {
              "num_deleted": "0",
              "num_feature": "4200",
              "num_nodes": "5",
              "size_leaf_vector": "1"
            }
          },
          {
            "base_weights": [
              5.3560226E-3,
              1.5394396E0,
              -1.2405419E-2,
              -3.4322527E-3,
              1.7431453E-2
            ],
            "categories": [],
            "categories_nodes": [],
            "categories_segments": [],
            "categories_sizes": [],
            "default_left": [
              0,
              0,
              0,
              0,
              0
            ],
            "id": 37,
            "left_children": [
              1,
              3,
              -1,
              -1,
              -1
            ],
            "loss_changes": [
              5.4584583E1,
              5.5062714E0,
              0E0,
              0E0,
              0E0
            ],
            "parents": [
              2147483647,
              0,
              0,
              1,
              1
            ],
            "right_children": [
              2,
              4,
              -1,
              -1,
              -1
            ],
            "split_conditions": [
              6.8403286E-1,
              1.3692387E0,
              -1.2405419E-2,
              -3.4322527E-3,
              1.7431453E-2
            ],
            "split_indices": [
              2238,
              3894,
              0,
              0,
              0
            ],
            "split_type": [
              0,
              0,
              0,
              0,
              0
            ],
            "sum_hessian": [
              2.6559526E1,
              1.1797531E1,
              1.4761995E1,
              1.0849969E0,
              1.0712535E1
            ],
            "tree_param": {
              "num_deleted": "0",
              "num_feature": "4200",
              "num_nodes": "5",
              "size_leaf_vector": "1"
            }
          },
          {
            "base_weights": [
              5.3627626E-3,
              1.526498E0,
              -1.236302E-2,
              -3.441415E-3,
              1.7291158E-2
            ],
            "categories": [],
            "categories_nodes": [],
            "categories_segments": [],
            "categories_sizes": [],
            "default_left": [
              0,
              0,
              0,
              0,
              0
            ],
            "id": 38,
            "left_children": [
              1,
              3,
              -1,
              -1,
              -1
            ],
            "loss_changes": [
              5.37418E1,
